15 64
24 0.6945065 -0.06153742 -0.19288103 0.23427036 0.34177098 -0.24154603 -0.06585371 0.089653656 0.77709395 -0.04976485 -0.15331797 -0.039155733 0.19011602 -0.36562017 -0.688827 -0.96370536 -0.3464824 0.08582111 -0.035514247 -0.7416692 -0.117263645 -0.12479912 -0.23222983 -0.0111917835 -0.21216397 -0.63028806 0.72283375 -0.3103175 0.0056338953 -0.2554094 -0.29870304 -0.2548499 0.380373 0.36827606 0.12083108 -0.37744352 0.10751187 -0.3342915 0.5446484 0.16574265 0.23436101 -0.6499311 -0.2046745 -0.102494925 0.103340864 0.2941117 -0.3967157 0.31669244 -0.1710791 -0.38541743 -0.060712278 -0.3790146 0.0013282553 0.30966574 -0.17203268 0.23839135 0.09382899 0.11810227 -0.30533266 0.44464287 -0.3544214 -0.014856348 -0.0028350106 -0.5324879
21 -0.30865258 -0.5151587 0.45564532 -0.45914522 -0.33385348 0.20571646 -0.26870203 -0.6478734 -0.46304804 -0.028294634 -0.29241255 0.01559408 -0.35898787 0.018335007 0.6537778 0.5813469 0.17435488 0.5888217 0.018360356 1.2595068 0.24985822 0.067739226 -0.1470591 -0.18210888 0.7714402 0.61682415 -1.1811552 1.0826788 0.36231416 0.5307005 0.32331493 0.35624176 -0.046479136 -0.40785897 0.09312075 0.11649487 -0.24908428 -0.04771978 -0.9198024 -0.88872844 -0.056495816 0.054751195 0.60837394 -0.5903915 -0.41682318 -0.06301509 0.12873091 -0.20829454 -0.471667 -0.12002886 -0.42365208 0.48077396 0.22819564 -0.75605804 0.16009596 0.17124113 0.43440714 -0.22131255 0.5776137 -0.26997954 -0.5632612 0.4945598 -0.14276211 0.49507484
22 -0.3111162 -0.053241864 0.1031036 -0.25907448 -0.52946305 0.24360248 0.00038520896 -0.70699877 -0.1538162 -0.043834314 0.097139515 -0.34042895 0.0051101027 0.36254418 0.18403251 0.6148992 0.22099118 0.46054456 0.23411869 0.74574643 0.03369074 0.57334065 0.18293983 -0.07566909 0.6185195 0.70786595 -0.7981857 0.8232346 0.12626746 0.076540746 0.16937903 0.08761907 0.076719746 -0.03750023 -0.12039921 0.06371574 -0.3376286 -0.5060385 -0.59511995 -0.6495415 -0.059856914 0.13583252 0.28979594 0.07234113 -0.26143283 -0.07232795 0.33974484 -0.31808707 -0.10511556 -0.11160209 -0.43498755 0.24769518 0.57973224 -0.581441 -0.07687486 0.29253438 -0.072354086 -0.29705322 0.32763085 -0.58128244 -0.4586378 0.3719958 -0.42796776 0.5215625
25 0.3243105 0.3812549 0.5837492 -0.28449816 0.1757554 -0.40709132 -0.38155046 1.2023472 0.62218463 -0.19678977 0.10191865 0.5793761 -0.060251463 -0.15210484 -1.0035754 -0.5758694 -0.6234202 -0.0626308 -0.8899541 -0.1458454 0.82678604 -0.42717844 -0.7763271 -0.18936886 -0.43599945 -0.41345632 0.21238934 -0.9100727 0.47033554 -0.12187948 -1.0592203 -0.41560066 -0.21107699 -0.2430988 0.29709432 -0.39427653 0.19834825 0.72819155 0.40632677 0.50796807 0.7705665 -0.23757488 0.105373785 -0.9430496 0.7377023 -0.7252947 -0.6967295 -0.06788136 -1.0158912 -0.5506388 0.0635396 -0.08190022 -1.0033046 1.0296545 -0.04382319 0.13009858 0.36738777 -0.21842885 -0.5984095 0.49371046 -0.56106913 -0.601542 0.15183342 -0.68453383
27 -0.06631552 0.14940569 -0.13657562 -0.13004825 -0.4703447 0.33879337 -0.12691307 -0.48050484 0.17021108 -0.03829774 0.2834974 -0.3191564 -0.022489976 0.33231136 -0.0029525722 0.2591942 0.42949486 0.20185116 0.44818997 0.056142915 -0.027660817 0.6554205 0.27403092 -0.043246374 0.35639235 0.46726277 -0.32672468 0.5241304 -0.19558512 -0.2372203 -0.080004536 -0.12856548 0.28582972 0.092222154 -0.37329245 0.17193998 -0.19034547 -0.64554775 -0.27274483 -0.30477604 -0.10635773 0.04902251 -0.016867975 0.57892996 -0.266579 0.060585484 0.29837888 -0.06853468 0.11446299 -0.15177591 -0.25538358 0.069835074 0.6910142 -0.37850767 -0.29884985 0.1329986 -0.33870396 -0.28934887 0.12404262 -0.5550039 -0.3335273 0.116083756 -0.572766 0.4195262
30 0.4512361 0.14838366 0.26688284 -0.084357336 0.34008655 -0.3135787 -0.25704142 0.7295825 0.5936398 -0.07095771 -0.074116535 0.2946046 0.061455406 -0.21869272 -0.8486521 -0.72572356 -0.58803046 -0.007596685 -0.514081 -0.33857104 0.45362392 -0.41023868 -0.57118535 -0.089783326 -0.33314604 -0.4845549 0.43079 -0.62638414 0.3212035 -0.0747465 -0.6968751 -0.3069357 0.0061914264 -0.0011393768 0.2889378 -0.35458958 0.17826588 0.31879008 0.39317003 0.36037308 0.5286442 -0.38015077 0.0017895951 -0.669562 0.46481368 -0.30511442 -0.5114892 0.03787993 -0.62944734 -0.44087085 0.024847832 -0.1545662 -0.6106838 0.7108358 -0.020458758 0.16875783 0.27560323 -0.092402704 -0.52963996 0.56577927 -0.4354002 -0.27464077 0.10024752 -0.61509585
18 0.15076067 0.23150046 -0.38651744 0.07038154 -0.37286526 0.35107875 -0.11222273 -0.3781054 0.37609556 0.040683992 0.40283257 -0.28177163 -0.14572729 0.2810265 -0.091567606 -0.04601042 0.55992115 0.08965732 0.5567984 -0.28391996 -0.08741176 0.6397611 0.26429346 -0.01739591 0.25543752 0.22237182 -0.014577663 0.36728778 -0.35093364 -0.365408 -0.2168052 -0.31615478 0.3737411 0.2974132 -0.4295612 0.15616758 -0.21825929 -0.7640351 -0.033516675 -0.21462485 -0.033617057 0.06769197 -0.24629366 0.816561 -0.18129541 0.15541609 0.27741197 -0.021771085 0.21512675 -0.21864621 -0.2830478 0.014240189 0.71593696 -0.18910162 -0.42386958 0.1393112 -0.403783 -0.24002112 0.0041457727 -0.50163203 -0.33943942 0.06265177 -0.5549738 0.37246782
28 0.5165189 -0.004510553 -0.35819727 0.20560567 0.094626 0.015133974 -0.07917076 -0.09539079 0.65729815 0.034946095 0.04831315 -0.18611518 0.05720131 -0.14063767 -0.437112 -0.67609 0.068387054 0.015472344 0.28867874 -0.71085954 -0.19266751 0.17171888 -0.032068238 0.025182113 -0.07203434 -0.35151586 0.5507235 -0.034291685 -0.2045444 -0.3334542 -0.2666847 -0.27649975 0.49000883 0.39126143 -0.16005874 -0.14914931 -0.002956211 -0.58664674 0.36542368 0.029007295 0.08924767 -0.41148055 -0.28220052 0.3720353 -0.06568664 0.30295146 -0.09355464 0.27327278 0.11743235 -0.26602852 -0.13217512 -0.230413 0.36075494 0.08249415 -0.2775549 0.16907834 -0.16076988 0.062400155 -0.24931721 0.11733045 -0.26916385 0.08841437 -0.261059 -0.22039518
23 0.408315 0.23918131 -0.48316488 0.14820018 -0.20357694 0.28159392 -0.17346776 -0.19160527 0.60434777 0.0027864738 0.3391448 -0.16176325 -0.13601351 0.11573041 -0.28032786 -0.3928822 0.4850149 -0.026675021 0.45759118 -0.67292947 -0.092825696 0.45670548 0.21737714 -0.0017967159 0.078358375 -0.099619254 0.35559553 0.1809246 -0.43603635 -0.43407896 -0.38829568 -0.43296975 0.45832127 0.3979701 -0.41441056 0.11812617 -0.080992214 -0.7542631 0.18746035 0.02638257 -0.020775737 -0.15815812 -0.37966722 0.82691604 -0.07743302 0.29109538 0.05584838 0.18616505 0.15421546 -0.30111998 -0.15201765 -0.1788452 0.51804614 -0.032022804 -0.45660532 0.10283885 -0.42495713 -0.074663095 -0.15335892 -0.25639707 -0.29206836 -0.05845615 -0.5206632 0.17417866
26 -0.39645693 -0.57694167 0.4542729 -0.44753802 -0.40615484 0.15220962 -0.25443855 -0.597187 -0.5638985 -0.07788432 -0.33491066 -0.026588054 -0.3860627 -0.06263884 0.69077843 0.69734263 0.10530332 0.5855345 -0.1627135 1.3880341 0.3061543 0.08062891 -0.2678761 -0.25754824 0.77480286 0.5564938 -1.2321919 1.1169755 0.36975324 0.6018538 0.25442424 0.32641256 -0.034522522 -0.41072923 0.11867584 0.007919144 -0.22552781 0.063694276 -0.90768814 -0.87388384 -0.06552492 0.022212619 0.62767833 -0.69482833 -0.3479089 -0.094789796 0.15531164 -0.29310888 -0.6155155 -0.13215967 -0.43764544 0.52185345 0.0249498 -0.82464415 0.2696668 0.26306602 0.45716962 -0.09396713 0.6170847 -0.24108887 -0.5992481 0.422963 0.02682814 0.47337964
16 -0.4474292 -0.5005217 0.49843165 -0.46584108 -0.41733384 0.12153489 -0.2220757 -0.55927914 -0.55432385 -0.08680863 -0.2999693 -0.06845268 -0.27922437 -0.0024560273 0.6041261 0.7255744 0.04690742 0.5704258 -0.17635185 1.364374 0.2990937 0.12929448 -0.24658917 -0.24488057 0.72792107 0.5960605 -1.2161943 1.016803 0.39925694 0.5571307 0.25962445 0.3458428 -0.0616704 -0.43695432 0.117216356 -0.008827855 -0.20894077 0.10148357 -0.8702526 -0.81784034 -0.046662316 0.040244475 0.6327952 -0.6988414 -0.32460052 -0.17063648 0.17225724 -0.3172682 -0.579786 -0.101179495 -0.41809374 0.49824634 0.047126435 -0.757403 0.25017974 0.26156065 0.4272987 -0.15458144 0.5827827 -0.25989968 -0.5728829 0.37446767 0.00963997 0.4456113
17 -0.46890306 0.114391156 0.32230672 -0.37165442 -0.6124777 0.19349241 0.026449231 -0.7217658 -0.16774544 -0.072113715 0.1880177 -0.48973274 0.2988504 0.5466233 -0.021837771 0.73571414 0.05712649 0.5216822 0.26085922 0.78546095 0.057440583 0.76743263 0.21986026 -0.087870836 0.58859706 0.9474579 -0.88026285 0.6571551 0.2620386 -0.066208124 0.2555502 0.20303419 0.03531383 -0.19276589 -0.15859157 0.034389924 -0.2898064 -0.4454146 -0.61406887 -0.5895184 -0.04267414 0.14015819 0.41362506 0.04337812 -0.2945166 -0.26434278 0.41567078 -0.3757802 -0.03066512 -0.054812443 -0.416294 0.23165217 0.75820434 -0.49404672 -0.14424396 0.29929742 -0.101722 -0.5408299 0.27943742 -0.6902369 -0.46741098 0.28505006 -0.536332 0.4702742
19 0.6958082 -0.17920418 -0.13236359 0.20726244 0.4184397 -0.28188935 0.012825422 0.059185814 0.7983327 0.019917808 -0.25764462 -0.07847119 0.2712409 -0.37501037 -0.70881575 -1.0112667 -0.39429393 0.028765043 -0.03741609 -0.7570305 -0.17189223 -0.1813178 -0.28250486 0.071312904 -0.24469434 -0.60865563 0.7188019 -0.31587604 0.09479727 -0.21441787 -0.23585546 -0.18243934 0.47526756 0.37003165 0.09832086 -0.41668126 0.024394749 -0.40293118 0.5680276 0.053531125 0.23601773 -0.7275357 -0.21033067 -0.25418377 0.038312722 0.25803486 -0.41988432 0.38398463 -0.065524 -0.32504398 -0.10149223 -0.34804296 0.062440865 0.3179019 -0.12728557 0.26260003 0.12682974 0.21908134 -0.38529032 0.49658984 -0.2829455 0.2213001 -0.028874703 -0.6659273
20 0.2617875 0.40783587 0.60150856 -0.31920606 0.2311636 -0.340513 -0.4691861 1.2518828 0.47862852 -0.15711707 0.08212667 0.5557553 -0.1010155 -0.10121721 -0.97728986 -0.49453053 -0.7165124 -0.021713438 -0.9070868 -0.0020747117 0.94423056 -0.5334592 -0.8262222 -0.23448844 -0.38345078 -0.37218487 0.18826829 -0.8584329 0.5063873 -0.00014395102 -1.0925133 -0.41921768 -0.3157709 -0.27717718 0.41654533 -0.31037685 0.274383 0.8399365 0.26881567 0.5786059 0.7849236 -0.121151045 0.17782691 -0.98331636 0.8028063 -0.7706174 -0.59690344 -0.22377011 -1.0864726 -0.55687934 0.08297142 0.009956101 -1.1168302 1.0188948 0.03088492 0.11649558 0.3718305 -0.32472256 -0.64293617 0.5833391 -0.60505354 -0.65507424 0.17927927 -0.59472924
29 0.6662584 -0.14713553 -0.11462514 0.19883174 0.3892451 -0.26265812 0.0023156463 0.077173 0.78584915 0.018112129 -0.2284106 -0.059217058 0.2740545 -0.33314735 -0.72309 -0.96645397 -0.39101842 0.042328734 -0.060432296 -0.7223698 -0.1494385 -0.16790083 -0.27433848 0.06193418 -0.23794557 -0.5711376 0.69120884 -0.3203599 0.10573777 -0.21611378 -0.24844691 -0.19006106 0.44375944 0.36034116 0.09687757 -0.4185423 0.016792748 -0.3722622 0.55636746 0.062793285 0.24815086 -0.6991645 -0.20192128 -0.26172867 0.061565727 0.22207616 -0.42119753 0.3515302 -0.10140958 -0.3410849 -0.10404378 -0.34543407 0.04519697 0.34008056 -0.13937332 0.25518352 0.12270362 0.1933316 -0.39343578 0.47293767 -0.28996348 0.19166069 -0.035322238 -0.64293236
