15 64
13 0.15049493 0.20284098 0.3282646 0.4776704 0.23712702 -0.10296533 -0.41215378 -0.26241192 -0.03467971 0.038235255 -0.3409038 0.36938152 -0.18298359 -0.1097718 0.17481297 -0.34911844 0.11520349 -0.24454084 0.04206691 0.26264435 -0.085684314 -0.20734535 0.50044465 -0.0032727623 0.1729905 0.10069621 -0.25522804 0.43256962 0.08597365 0.038147718 -0.3516504 0.091495804 0.32555586 -0.11108172 0.08616038 -0.4506141 0.0050636106 0.3950097 0.22667617 -0.12669083 0.014507672 0.01175556 0.028626572 0.09182217 0.10285059 0.3683141 0.3162897 0.050783698 -0.21513213 -0.15068275 0.014217492 0.5110709 -0.15253423 -0.034322016 0.37388512 0.22937383 -0.3444 0.3311608 0.0051572383 0.05714741 0.13387865 0.26533893 -0.35139012 -0.5524109
15 -0.25865388 -0.54712516 -0.30868092 -0.33063704 0.35186756 0.7330284 0.23839016 0.79154867 -0.37761605 0.08057308 0.30182374 -0.7796153 -0.10380061 -0.1420082 0.1715741 0.7629755 0.4359045 -0.20385325 0.067015134 -0.13514481 0.30586484 0.041217808 -0.62538534 -0.03454929 -0.9603 0.7410481 -0.21810357 -0.36855018 0.4173518 -0.13665494 0.25910082 0.47514477 0.19596545 -0.028639276 0.24115235 0.6755185 -0.13263053 -0.21617027 0.5064168 0.027485814 -0.18014002 0.9204576 -0.4170176 0.62137353 -0.07180019 -0.6033845 0.2189182 -0.5421686 0.28139442 0.20369346 0.083608426 -0.531078 0.75014675 0.03420859 -0.6276503 -0.75963366 0.51443714 0.04501834 -0.2385338 -0.12156743 -0.52314067 -0.42273834 0.4745091 0.93115985
2 0.29333565 -0.05844061 -0.1471607 -0.4187563 0.18252866 0.33375254 0.27021524 0.903743 -0.040211648 0.14846082 0.48161936 -0.36080492 0.28884262 -0.38689184 -0.22037695 0.54149663 0.06536212 -0.05996535 0.07056041 0.062247522 0.26333216 0.08262995 -0.09354868 0.077539325 -0.60426104 0.38610426 0.08273967 0.07825711 0.123762004 0.005820787 0.009985026 -0.16728781 -0.07536555 -0.12779523 0.18171264 0.63172233 -0.37149727 0.452828 0.23039924 0.039790757 -0.22951852 0.44090676 -0.06892622 0.51130867 -0.20041429 -0.33311346 0.028992567 -0.15918455 -0.02263275 -0.08793379 -0.26587138 -0.43138474 0.45323506 0.15246949 -0.1263323 -0.31026804 0.45722544 0.17087945 -0.19117345 -0.16234362 -0.088438995 -0.33363146 -0.10947305 0.49645516
14 -0.34491715 0.4107564 0.7018336 0.74762785 -0.34778684 0.18854326 -0.15293664 -0.5382609 0.3168267 0.22126931 -0.2055827 0.9822085 -0.4433836 0.5731458 0.52826476 -0.17736007 -0.49101058 -0.5312535 -0.60077924 0.69658947 -0.21824566 0.45233876 0.32221296 0.6790553 0.116311304 0.22671151 0.3241935 0.3419299 -0.2823398 -0.12968783 -0.38976905 0.20132434 0.4701422 -0.117770106 0.7761589 -0.8835117 0.26284328 0.056064356 0.7560014 -0.113735214 -0.099636815 -0.3854888 0.17865275 0.2652628 0.28615037 0.6268841 0.5960781 0.74983203 0.036305774 0.0010735914 0.026671458 0.3997607 -0.4983819 -0.24681671 -0.6391989 0.8531539 -0.8217809 -0.000732849 0.44416603 -0.23040299 -0.05359078 0.17253879 0.13254759 -0.86425936
11 0.8298664 0.06312179 -0.18304929 -0.8502008 -0.03453029 0.3587481 0.6189195 1.3939345 0.19768488 0.26289496 1.018141 -0.2327667 0.6816887 -0.68154764 -0.5738626 0.79402614 -0.18742557 0.1809259 -0.027524155 0.2667299 0.46306148 0.25329134 0.042515133 0.30719933 -0.76010084 0.3835555 0.616943 0.3420577 -0.17224905 0.10602299 -0.09959961 -0.7483719 -0.31519613 -0.16894719 0.22363062 1.0274441 -0.66502506 1.1414034 0.24434535 0.048808724 -0.49188858 0.31990567 0.27997494 0.6746171 -0.3656269 -0.38507116 -0.05951057 0.028364932 -0.15749665 -0.2539141 -0.66274995 -0.7562871 0.53128904 0.1750506 0.048642747 -0.12107046 0.6862922 0.30246213 -0.12659004 -0.12195194 0.11715653 -0.58849466 -0.57594335 0.6171178
12 -0.3446434 -0.29211694 -0.4130748 0.1619179 1.0895449 -0.11719654 -0.94212645 -1.0343258 -0.07362382 0.3948277 -0.55939966 0.1227541 -0.71605134 -0.7060801 -0.26673523 -1.2654729 0.6552715 0.08578992 0.35276744 0.21444665 -0.031580277 -0.27912775 0.620684 -0.8992833 0.062126286 -0.5791145 -0.49338058 -0.31825426 -0.60016745 0.0963262 -0.033630162 -0.4093687 0.3220158 0.16707347 -0.7317402 -0.9326875 0.25121045 0.21263249 -0.6559494 -0.35768157 -0.5934013 -0.25055692 0.9028304 -0.76538193 0.4577383 0.3665248 0.21859507 -0.79472256 -0.09387849 0.5155069 0.22658643 1.1492939 -0.18409672 -0.47497308 1.28149 0.3996524 -0.67407477 -0.048271585 0.19809636 0.6359015 0.2832251 -0.0709231 -0.5731502 0.028904323
3 0.29342008 0.16131712 0.12412378 -0.06404184 0.18244281 0.12519272 0.11473251 0.43881327 0.022128258 0.052232902 0.20267226 -0.019419383 0.14591719 -0.26656488 -0.09248295 0.2098759 -0.058061827 -0.09956405 -0.065134645 0.094151914 0.078556135 -0.034758788 0.2337191 0.16533497 -0.30015394 0.15839522 -0.005982979 0.3240496 -0.039191443 0.061614744 -0.054527488 -0.106211565 0.06263901 -0.043395016 -0.02735055 0.14469439 -0.26200846 0.36891732 0.1332228 -0.044424172 -0.17094694 0.091677345 0.042304285 0.23179813 -0.047238797 0.094798684 0.1840671 -0.023749022 -0.10330303 -0.0021089413 -0.14261015 0.17649369 0.036244214 -0.019008044 0.08193901 -0.028108368 0.21775198 0.21686207 -0.14216444 -0.11769252 0.03399899 -0.13911995 -0.15564407 -0.015249611
1 -0.12466812 -0.05328152 -0.05873032 0.30985925 0.7243174 -0.1299801 -0.6887828 -0.71149737 -0.065570906 0.23112965 -0.46878675 0.21870668 -0.46452036 -0.4745662 -0.16326234 -0.88833886 0.37476578 -0.03306276 0.19008112 0.19254485 -0.051600337 -0.23716633 0.62772036 -0.5091327 0.12579523 -0.39654702 -0.4328178 0.0037019846 -0.3673701 0.06138648 -0.17304207 -0.25671878 0.31495103 0.08309568 -0.44773945 -0.7542827 0.120989315 0.2553415 -0.35439694 -0.24881767 -0.3279686 -0.20422038 0.548301 -0.43867552 0.32838166 0.38265723 0.2533881 -0.41671255 -0.1638627 0.25416905 0.11596072 0.9791558 -0.23636258 -0.30436754 0.9550539 0.3668883 -0.50391465 0.07257173 0.13068227 0.38689148 0.26439083 0.08176903 -0.46803108 -0.27438587
5 -0.40626562 -0.6095529 -0.4504314 -0.43858588 0.49469337 0.7723925 0.077510156 0.78906155 -0.4074648 0.13782494 0.23834991 -0.8606457 -0.13846509 -0.154571 0.10453716 0.7148623 0.5213041 -0.2888658 0.22655162 -0.18342996 0.25634325 0.042669076 -0.67373073 -0.25981012 -1.0176334 0.6622942 -0.3811832 -0.57512796 0.46158695 -0.13573556 0.3032748 0.56490135 0.17685336 -0.06467734 0.24240386 0.64103913 -0.11747633 -0.31336904 0.36253121 0.05487566 -0.22797357 0.99553984 -0.50571775 0.5588738 -0.03794445 -0.63952607 0.20462184 -0.7086286 0.38197443 0.2855596 0.10878563 -0.5412705 0.82629365 0.13400073 -0.62635654 -0.8431465 0.5238505 -0.034961905 -0.31619486 -0.17305988 -0.57684493 -0.43733934 0.584791 1.0736545
10 -0.39657667 -0.56931525 -0.4136499 -0.4109523 0.39293513 0.752307 0.10300267 0.76164055 -0.35688716 0.140797 0.25242254 -0.773817 -0.12964207 -0.1043847 0.13267523 0.71525425 0.46097812 -0.2887534 0.18232512 -0.14080657 0.2556649 0.09761177 -0.6783454 -0.18978243 -0.96344376 0.6729361 -0.29562593 -0.5551214 0.43603337 -0.15587427 0.2640028 0.5330832 0.17582168 -0.0744935 0.33025962 0.6137492 -0.100965 -0.2876241 0.4233959 0.07026872 -0.20534208 0.95354086 -0.4853053 0.58609307 -0.058693197 -0.6394181 0.19080819 -0.6082099 0.37431815 0.22494023 0.08417133 -0.60777956 0.79406756 0.14105281 -0.67417747 -0.7621498 0.46477932 -0.03510055 -0.26481012 -0.17416689 -0.5614196 -0.41628903 0.5558154 1.0011145
7 0.8469014 0.2442409 -0.16954741 -0.84172595 -0.096744984 0.31196702 0.651992 1.5132262 0.27405787 0.351465 1.1296672 -0.14203238 0.796483 -0.70008945 -0.5910251 0.8693009 -0.3460266 0.14842522 -0.104111455 0.35459426 0.45999977 0.3805101 0.16299456 0.43739936 -0.76829195 0.33094493 0.74131495 0.39575127 -0.28985974 0.07282693 -0.14928432 -0.86760026 -0.3879333 -0.20019595 0.31224155 1.0741951 -0.7460669 1.2807537 0.25477612 0.12860262 -0.53713465 0.20935643 0.37360513 0.73365635 -0.38322645 -0.31782496 -0.10512218 0.15779054 -0.1912603 -0.30907425 -0.758874 -0.75907946 0.48277313 0.21256542 -0.03017644 -0.05840559 0.6644774 0.24958415 -0.14451948 -0.2318375 0.17380275 -0.61356896 -0.62434745 0.5258104
6 -0.4645789 -0.44793287 -0.5044276 0.12511745 1.14862 -0.047751553 -1.0445439 -1.2066674 -0.13175379 0.49038485 -0.59281194 0.108920574 -0.8235917 -0.780702 -0.38701937 -1.4165874 0.73713076 0.16559061 0.40997902 0.25760058 0.060608186 -0.20611364 0.6124022 -1.0421128 0.06448399 -0.74154 -0.54527104 -0.521911 -0.743691 0.035456 -0.11445457 -0.53801274 0.3788533 0.2230409 -0.76032364 -1.0248916 0.32599252 0.21400265 -0.7063621 -0.33684123 -0.6550279 -0.25549936 1.0273539 -0.8198511 0.53717214 0.29559085 0.20975195 -0.8646368 -0.063834384 0.56766385 0.17345135 1.177112 -0.1783239 -0.5187803 1.4397959 0.49089584 -0.7703158 -0.16756454 0.33277047 0.80602545 0.35697663 -0.067601345 -0.6361873 0.060117032
9 -0.35098663 0.30369607 0.64316285 0.8406494 -0.3445733 0.2204144 -0.30597532 -0.6394529 0.25751433 0.17759296 -0.3186753 0.97215915 -0.5320104 0.61285347 0.61308175 -0.23346706 -0.37384248 -0.5402054 -0.517866 0.6941508 -0.25441945 0.34293368 0.29472667 0.64353275 0.19695748 0.29800776 0.26922688 0.31773424 -0.17252901 -0.14814723 -0.44558585 0.34201175 0.54783994 -0.10197921 0.81147456 -0.92768884 0.33381686 0.076934405 0.84535027 -0.13436754 -0.018620703 -0.26347214 0.08953052 0.30516773 0.28303474 0.55590403 0.59983313 0.6964863 -0.00018688892 -0.046668887 0.09987897 0.3021118 -0.4662046 -0.20169072 -0.6401576 0.80114126 -0.87868536 0.064582795 0.45002875 -0.13470806 -0.045465406 0.24645548 0.11634549 -0.91289103
4 -0.30199438 0.37253058 0.72219956 0.83121234 -0.44706267 0.22858079 -0.2114575 -0.5525676 0.31866255 0.17053188 -0.23652585 1.046325 -0.45307013 0.64332545 0.612346 -0.14649042 -0.48964944 -0.55118275 -0.5913386 0.74169284 -0.25360727 0.42238033 0.31306645 0.7721996 0.19437876 0.31204596 0.38099232 0.40005425 -0.20302603 -0.1469999 -0.471958 0.29574034 0.5102888 -0.11694653 0.8875784 -0.88528204 0.29835778 0.13707517 0.9050421 -0.118408985 -0.024029156 -0.32929152 0.083520874 0.36703953 0.2502595 0.5955918 0.6094992 0.83075124 -0.010891 -0.07731101 0.042789992 0.24587996 -0.5108076 -0.20202695 -0.726187 0.8683107 -0.8566135 0.06385937 0.46717897 -0.20047063 -0.039786372 0.22483784 0.10206489 -0.9656652
8 0.18140672 0.3428221 0.46679384 0.53480005 0.35242322 -0.11166877 -0.34726384 -0.23872924 0.029079001 0.010208178 -0.34502384 0.43022892 -0.19277541 -0.17160556 0.07560326 -0.39860433 -0.0141674625 -0.27471116 -0.11060626 0.22528751 -0.18221797 -0.23606552 0.6814815 0.101348 0.100963674 -0.01915693 -0.30827808 0.5670727 -0.07278406 0.11010112 -0.23983578 0.022003947 0.3444088 -0.025063641 -0.11121594 -0.5884819 -0.07164233 0.30519924 0.07585855 -0.22927298 -0.07988207 -0.2087412 0.10352159 -0.018518524 0.17493969 0.56473184 0.4036062 0.070117146 -0.25929672 0.035437115 0.075406775 0.8842097 -0.37344074 -0.18396491 0.41163057 0.3694568 -0.26603374 0.31773558 -0.035032086 -0.069826126 0.17101476 0.18027437 -0.2900643 -0.6532928
